{
    "HighestTile": 0,
    "Score": 46280,
    "Fitness": 0.4112754166126251,
    "GameTime": 49.73345947265625,
    "Weights": [
        0.33853262662887576,
        1.1657748222351075,
        -0.5409185886383057,
        0.6409082412719727,
        0.3218570947647095,
        -0.9210171699523926,
        0.47712305188179018,
        0.053286030888557437,
        -0.18760216236114503,
        -0.5229020118713379,
        0.24504101276397706,
        -0.4533950090408325,
        0.954007625579834,
        1.1763079166412354,
        -0.1879938840866089,
        0.8340423107147217,
        -0.7813820838928223,
        0.11300337314605713,
        -0.29797089099884035,
        0.20484839379787446,
        -0.8011460304260254,
        0.44051194190979006,
        0.2514503002166748,
        0.15882718563079835,
        -0.8124723434448242,
        0.03018707036972046,
        0.022605448961257936,
        -0.6679635047912598,
        -0.35718369483947756,
        0.8824479579925537,
        -0.47280991077423098,
        -0.5664787292480469,
        0.6592183113098145,
        0.4907178282737732,
        -0.0885159969329834,
        -0.8540148735046387,
        1.9696941375732422,
        -1.1855154037475587,
        -0.45922553539276125,
        -0.4648545980453491,
        -0.4964519739151001,
        0.6345264911651611,
        -0.03811454772949219,
        -0.2675258219242096,
        -0.20263564586639405,
        0.8088302612304688,
        0.7875747680664063,
        0.7792505621910095,
        0.29312533140182497,
        -0.41041100025177,
        0.6421630382537842,
        0.7636218070983887,
        0.23020723462104798,
        -0.25938913226127627,
        -0.40826115012168887,
        -0.3123881220817566,
        -0.36527514457702639,
        0.3112126588821411,
        0.2470078468322754,
        0.010167635977268219,
        -0.1968247890472412,
        0.3219573199748993,
        -0.18850505352020265,
        -0.8468320369720459,
        0.12915796041488648,
        -0.8419075012207031,
        0.13220322132110597,
        -1.6771740913391114,
        -0.21909141540527345,
        0.7795860767364502,
        -0.4791008234024048,
        0.607426643371582,
        -0.460945725440979,
        -1.9627430438995362,
        -0.40409791469573977,
        -0.6416804790496826,
        -0.9553272724151611,
        0.9727321267127991,
        0.5062694549560547,
        0.023311138153076173,
        -0.24863016605377198,
        1.0127969980239869,
        -0.2115686535835266,
        0.1683761477470398,
        -0.3147016763687134,
        0.9083545207977295,
        0.6465053558349609,
        0.03919541835784912,
        -0.7917051315307617,
        0.26537179946899416,
        -0.6680874824523926,
        -0.5790855884552002,
        1.5149407386779786,
        -0.997220516204834,
        1.2985010147094727,
        -0.00618782639503479,
        0.7841682434082031,
        -0.6640207767486572,
        0.33775487542152407,
        0.2722635269165039,
        -0.023960478603839875,
        -0.2194814682006836
    ],
    "layer": 1,
    "neuron": 10,
    "ao": 0,
    "algo": 0
}