{
    "HighestTile": 2048,
    "Score": 43248,
    "Fitness": 1.0,
    "GameTime": 56.928157806396487,
    "Weights": [
        0.9591279029846191,
        -0.23958313465118409,
        -0.747429370880127,
        -0.9448785781860352,
        -0.10477244853973389,
        -0.5342404842376709,
        0.8964085578918457,
        0.2820555865764618,
        -0.43787848949432375,
        -0.24481356143951417,
        0.1491926908493042,
        0.2288280725479126,
        -0.9486606121063232,
        0.4969615638256073,
        -0.881591796875,
        -0.6291399002075195,
        0.5626711845397949,
        0.4506854712963104,
        0.45189282298088076,
        0.918309211730957,
        0.949439287185669,
        0.06636130809783936,
        0.0729142427444458,
        0.7757306098937988,
        -0.1485196352005005,
        0.19504988193511964,
        -0.5114541053771973,
        0.17433512210845948,
        -0.623035192489624,
        -0.792607307434082,
        0.7423880100250244,
        -0.6988134384155273,
        0.8748419284820557,
        -0.8760204315185547,
        0.6537144184112549,
        0.11099159717559815,
        -0.824800968170166,
        0.8195362091064453,
        0.1069861650466919,
        0.06523263454437256,
        0.4313037097454071,
        0.6672275066375732,
        0.13357269763946534,
        0.15098464488983155,
        -0.11737310886383057,
        0.5617096424102783,
        0.3277587592601776,
        0.5948507785797119,
        0.8751075267791748,
        -0.22793066501617433,
        -0.056279540061950687,
        0.9652025699615479,
        -0.7870724201202393,
        -0.7637536525726318,
        -0.5367507934570313,
        0.815392017364502,
        0.05104339122772217,
        0.7093305587768555,
        -0.5006437301635742,
        -0.37874066829681399,
        0.8158309459686279,
        -0.44017088413238528,
        0.31596753001213076,
        0.3113839328289032,
        -0.8275988101959229,
        -0.10701930522918701,
        0.6163349151611328,
        -0.5225584506988525,
        0.14297401905059815,
        0.9585869312286377,
        -0.7817704677581787,
        0.7460401058197022,
        -0.007690787315368652,
        -0.10099899768829346,
        -0.037994980812072757,
        -0.908299446105957,
        -0.22477233409881593,
        0.08972537517547608,
        0.5842068195343018,
        0.635444164276123,
        0.7315938472747803,
        -0.4420706033706665,
        -0.1940094232559204,
        0.9746530055999756,
        -0.7388644218444824,
        -0.5715734958648682,
        0.6740818023681641,
        0.6802434921264648,
        0.3440832793712616,
        0.36115190386772158,
        -0.1439298391342163,
        0.0026859045028686525,
        -0.5789856910705566,
        0.15984046459197999,
        0.8886220455169678,
        0.7543001174926758,
        -0.05308973789215088,
        -0.7476167678833008,
        0.9470694065093994,
        -0.022850632667541505,
        0.7049872875213623,
        -0.27351295948028567
    ],
    "layer": 1,
    "neuron": 10,
    "ao": 0,
    "algo": 2
}