{
    "HighestTile": 2048,
    "Score": 44952,
    "Fitness": 1.0,
    "GameTime": 53.11200714111328,
    "Weights": [
        0.564361035823822,
        -0.32095006108283999,
        0.4559629261493683,
        -1.5900170803070069,
        -0.4224648177623749,
        -0.7120060324668884,
        0.13541503250598908,
        1.0789538621902466,
        2.468406915664673,
        3.5631301403045656,
        1.0168579816818238,
        0.6895405650138855,
        1.8583784103393555,
        0.5408508777618408,
        0.48138463497161868,
        -1.8402855396270753,
        0.27612000703811648,
        -0.23023949563503266,
        2.2071218490600588,
        0.33283233642578127,
        -3.905197858810425,
        0.8965710401535034,
        -0.37419721484184267,
        0.7079496383666992,
        0.4738557040691376,
        -0.24099601805210114,
        0.7380278706550598,
        -1.0837500095367432,
        1.2030375003814698,
        0.5884518027305603,
        -0.832758903503418,
        0.3122515082359314,
        0.19753125309944154,
        0.812174379825592,
        -0.9186521172523499,
        0.5536709427833557,
        0.028067810460925103,
        -0.05505372956395149,
        0.43194153904914858,
        2.7796432971954347,
        0.6170915365219116,
        -0.13948103785514832,
        -0.19022655487060548,
        0.4576801359653473,
        -1.444855809211731,
        0.7856053709983826,
        -0.2539190351963043,
        1.2229658365249634,
        -0.4043724834918976,
        -0.10425414144992829,
        0.4871799647808075,
        -0.5102315545082092,
        -0.7843294739723206,
        0.2874283492565155,
        -0.8739705681800842,
        -0.3856543004512787,
        -0.23519597947597505,
        0.8327295780181885,
        2.004047393798828,
        0.3286784291267395,
        0.7654677629470825,
        -0.4014766812324524,
        -0.3455897271633148,
        0.5622050166130066,
        0.7476999163627625,
        1.5345768928527833,
        1.0077528953552247,
        1.0657706260681153,
        0.7988048195838928,
        -0.08781014382839203,
        0.14042901992797852,
        0.845048725605011,
        -0.32694047689437868,
        -0.6663829684257507,
        0.38552865386009219,
        0.15007120370864869,
        0.49050065875053408,
        -0.10717643797397614,
        0.22349326312541963,
        0.49918749928474429,
        0.12438537925481796,
        2.707977294921875,
        -0.5754364728927612,
        1.334633708000183,
        0.7244358062744141,
        -0.6441441774368286,
        0.335461288690567,
        0.4159529209136963,
        0.5719212889671326,
        -1.155997633934021,
        0.9509103894233704,
        -2.0307140350341799,
        -0.48620274662971499,
        -0.497279554605484,
        -0.4561064541339874,
        -0.37487491965293887,
        -1.3378981351852418,
        -1.0521540641784669,
        -0.7079970836639404,
        0.23973514139652253,
        0.47828537225723269,
        -0.48604118824005129
    ],
    "layer": 1,
    "neuron": 10,
    "ao": 0,
    "algo": 2
}