{
    "HighestTile": 2048,
    "Score": 55972,
    "Fitness": 1.0,
    "GameTime": 64.90583801269531,
    "Weights": [
        -0.8268083930015564,
        -0.9221037030220032,
        -0.42880696058273318,
        -1.6119921207427979,
        -0.8528052568435669,
        0.02447657287120819,
        -0.8232426047325134,
        -1.5602904558181763,
        -0.6194990873336792,
        -0.6471850275993347,
        0.00912187248468399,
        -1.2454084157943726,
        0.4257773756980896,
        -1.3691118955612183,
        -0.1516001671552658,
        -1.1789785623550416,
        -0.102918840944767,
        -0.38226404786109927,
        -0.6461042165756226,
        -0.27163320779800417,
        -0.08066658675670624,
        0.02345520816743374,
        -0.6260960102081299,
        -0.7466713190078735,
        0.08928628265857697,
        -0.10890346020460129,
        0.1203719824552536,
        -0.7043479681015015,
        -0.3201000988483429,
        -1.8474708795547486,
        -0.18971048295497895,
        -0.05839097127318382,
        -1.0727519989013672,
        -1.3740475177764893,
        -0.06487012654542923,
        -0.15179651975631715,
        -0.23190262913703919,
        -0.0415051206946373,
        -0.4987045228481293,
        0.06959707289934159,
        0.13241228461265565,
        -1.9491875171661378,
        -2.2746925354003908,
        -1.0489274263381959,
        -0.38670673966407778,
        0.3625941276550293,
        -0.38082778453826907,
        -0.16546030342578889,
        -1.6212106943130494,
        -0.29970547556877139,
        0.3350432813167572,
        -0.06965500861406326,
        0.6124657988548279,
        0.41973814368247988,
        -0.049356609582901,
        -2.2572073936462404,
        -0.6893813014030457,
        -0.6119999885559082,
        -0.7556300163269043,
        -1.800109624862671,
        0.345930278301239,
        -1.2630308866500855,
        -1.135520339012146,
        -1.751329779624939,
        -0.6979612112045288,
        -1.222232460975647,
        -0.7633154988288879,
        -0.3196134865283966,
        -0.7380964159965515,
        -2.2399120330810549,
        -1.0661824941635132,
        0.17214328050613404,
        -0.5359106659889221,
        -0.5272191166877747,
        0.3337703049182892,
        -2.5591888427734377,
        -1.2843440771102906,
        -0.4097879230976105,
        -2.0089495182037355,
        -0.9540657997131348,
        -1.0981353521347047,
        -0.07598180323839188,
        -0.981415867805481,
        -0.6633929014205933,
        -0.11504665017127991,
        0.17431211471557618,
        -0.24067801237106324,
        -0.5389268398284912,
        -2.325309991836548,
        0.2891376316547394,
        -1.09951651096344,
        -1.3522909879684449,
        -0.13606476783752442,
        -1.0594192743301392,
        -0.8696737885475159,
        -0.08411101996898651,
        0.6621455550193787,
        0.1427997648715973,
        0.024447841569781305,
        -0.7243779301643372,
        -0.07945705950260163,
        -1.2867127656936646
    ],
    "layer": 1,
    "neuron": 10,
    "ao": 0,
    "algo": 1
}